<?xml version="1.0" encoding="UTF-8"?>
<smile version="1.0" id="Network1" numsamples="10000" discsamples="10000">
	<nodes>
		<cpt id="S3">
			<state id="TL" />
			<state id="TR" />
			<probabilities>0.5 0.5</probabilities>
		</cpt>
		<cpt id="O3">
			<state id="GLCL" />
			<state id="GLCR" />
			<state id="GLS" />
			<state id="GRCL" />
			<state id="GRCR" />
			<state id="GRS" />
			<parents>S3</parents>
			<probabilities>0.2055555555555556 0.20555556 0.20555556 0.1277777777777778 0.12777778 0.12777778 0.12777778 0.12777778 0.12777778 0.20555556 0.20555556 0.20555556</probabilities>
		</cpt>
		<decision id="D3">
			<state id="OL" />
			<state id="OR" />
			<state id="L" />
			<parents>O3</parents>
		</decision>
		<deterministic id="OD3">
			<state id="OL" />
			<state id="OR" />
			<state id="L" />
			<resultingstates>L</resultingstates>
		</deterministic>
		<cpt id="S2">
			<state id="TL" />
			<state id="TR" />
			<parents>S3 D3 OD3</parents>
			<probabilities>0.5 0.5 0.5 0.5 0.5 0.5 0.5 0.5 0.5 0.5 0.5 0.5 0.5 0.5 0.5 0.5 1 0 0.5 0.5 0.5 0.5 0.5 0.5 0.5 0.5 0.5 0.5 0.5 0.5 0.5 0.5 0.5 0.5 0 1</probabilities>
		</cpt>
		<cpt id="O2">
			<state id="GLCL" />
			<state id="GLCR" />
			<state id="GLS" />
			<state id="GRCL" />
			<state id="GRCR" />
			<state id="GRS" />
			<parents>S2 D3 OD3</parents>
			<probabilities>0.1666666666666667 0.1666666666666667 0.1666666666666667 0.1666666666666667 0.1666666666666667 0.1666666666666667 0.1666666666666667 0.1666666666666667 0.1666666666666667 0.1666666666666667 0.1666666666666667 0.1666666666666667 0.1666666666666667 0.1666666666666667 0.1666666666666667 0.1666666666666667 0.1666666666666667 0.1666666666666667 0.1666666666666667 0.1666666666666667 0.1666666666666667 0.1666666666666667 0.1666666666666667 0.1666666666666667 0.1666666666666667 0.1666666666666667 0.1666666666666667 0.1666666666666667 0.1666666666666667 0.1666666666666667 0.1666666666666667 0.1666666666666667 0.1666666666666667 0.1666666666666667 0.1666666666666667 0.1666666666666667 0.765 0.0425 0.0425 0.135 0.0075 0.0075 0.0425 0.765 0.0425 0.0075 0.135 0.0075 0.0425 0.0425 0.765 0.0075 0.0075 0.135 0.1666666666666667 0.1666666666666667 0.1666666666666667 0.1666666666666667 0.1666666666666667 0.1666666666666667 0.1666666666666667 0.1666666666666667 0.1666666666666667 0.1666666666666667 0.1666666666666667 0.1666666666666667 0.1666666666666667 0.1666666666666667 0.1666666666666667 0.1666666666666667 0.1666666666666667 0.1666666666666667 0.1666666666666667 0.1666666666666667 0.1666666666666667 0.1666666666666667 0.1666666666666667 0.1666666666666667 0.1666666666666667 0.1666666666666667 0.1666666666666667 0.1666666666666667 0.1666666666666667 0.1666666666666667 0.1666666666666667 0.1666666666666667 0.1666666666666667 0.1666666666666667 0.1666666666666667 0.1666666666666667 0.135 0.0075 0.0075 0.765 0.0425 0.0425 0.0075 0.135 0.0075 0.0425 0.765 0.0425 0.0075 0.0075 0.135 0.0425 0.0425 0.765</probabilities>
		</cpt>
		<decision id="D2">
			<state id="OL" />
			<state id="OR" />
			<state id="L" />
			<parents>D3 O2</parents>
		</decision>
		<cpt id="OO2">
			<state id="GL" />
			<state id="GR" />
			<parents>S2 OD3</parents>
			<probabilities>0.5 0.5 0.5 0.5 0.85 0.15 0.5 0.5 0.5 0.5 0.15 0.85</probabilities>
		</cpt>
		<deterministic id="OD2">
			<state id="OL" />
			<state id="OR" />
			<state id="L" />
			<resultingstates>L</resultingstates>
		</deterministic>
		<cpt id="S1">
			<state id="TL" />
			<state id="TR" />
			<parents>S2 D2 OD2</parents>
			<probabilities>0.5 0.5 0.5 0.5 0.5 0.5 0.5 0.5 0.5 0.5 0.5 0.5 0.5 0.5 0.5 0.5 1 0 0.5 0.5 0.5 0.5 0.5 0.5 0.5 0.5 0.5 0.5 0.5 0.5 0.5 0.5 0.5 0.5 0 1</probabilities>
		</cpt>
		<cpt id="O1">
			<state id="GLCL" />
			<state id="GLCR" />
			<state id="GLS" />
			<state id="GRCL" />
			<state id="GRCR" />
			<state id="GRS" />
			<parents>S1 D2 OD2</parents>
			<probabilities>0.1666666666666667 0.1666666666666667 0.1666666666666667 0.1666666666666667 0.1666666666666667 0.1666666666666667 0.1666666666666667 0.1666666666666667 0.1666666666666667 0.1666666666666667 0.1666666666666667 0.1666666666666667 0.1666666666666667 0.1666666666666667 0.1666666666666667 0.1666666666666667 0.1666666666666667 0.1666666666666667 0.1666666666666667 0.1666666666666667 0.1666666666666667 0.1666666666666667 0.1666666666666667 0.1666666666666667 0.1666666666666667 0.1666666666666667 0.1666666666666667 0.1666666666666667 0.1666666666666667 0.1666666666666667 0.1666666666666667 0.1666666666666667 0.1666666666666667 0.1666666666666667 0.1666666666666667 0.1666666666666667 0.765 0.0425 0.0425 0.135 0.0075 0.0075 0.0425 0.765 0.0425 0.0075 0.135 0.0075 0.0425 0.0425 0.765 0.0075 0.0075 0.135 0.1666666666666667 0.1666666666666667 0.1666666666666667 0.1666666666666667 0.1666666666666667 0.1666666666666667 0.1666666666666667 0.1666666666666667 0.1666666666666667 0.1666666666666667 0.1666666666666667 0.1666666666666667 0.1666666666666667 0.1666666666666667 0.1666666666666667 0.1666666666666667 0.1666666666666667 0.1666666666666667 0.1666666666666667 0.1666666666666667 0.1666666666666667 0.1666666666666667 0.1666666666666667 0.1666666666666667 0.1666666666666667 0.1666666666666667 0.1666666666666667 0.1666666666666667 0.1666666666666667 0.1666666666666667 0.1666666666666667 0.1666666666666667 0.1666666666666667 0.1666666666666667 0.1666666666666667 0.1666666666666667 0.135 0.0075 0.0075 0.765 0.0425 0.0425 0.0075 0.135 0.0075 0.0425 0.765 0.0425 0.0075 0.0075 0.135 0.0425 0.0425 0.765</probabilities>
		</cpt>
		<decision id="D1">
			<state id="OL" />
			<state id="OR" />
			<state id="L" />
			<parents>D2 O1</parents>
		</decision>
		<utility id="U3">
			<parents>S3 D3 OD3</parents>
			<utilities>-100 -100 -100 10 10 10 -1 -1 -1 10 10 10 -100 -100 -100 -1 -1 -1</utilities>
		</utility>
		<utility id="U2">
			<parents>S2 D2 OD2</parents>
			<utilities>-100 -100 -100 10 10 10 -1 -1 -1 10 10 10 -100 -100 -100 -1 -1 -1</utilities>
		</utility>
		<cpt id="OO1">
			<state id="GL" />
			<state id="GR" />
			<parents>S1 OD2</parents>
			<probabilities>0.5 0.5 0.5 0.5 0.85 0.15 0.5 0.5 0.5 0.5 0.15 0.85</probabilities>
		</cpt>
		<deterministic id="OD1">
			<state id="OL" />
			<state id="OR" />
			<state id="L" />
			<resultingstates>OR</resultingstates>
		</deterministic>
		<utility id="U1">
			<parents>S1 D1 OD1</parents>
			<utilities>-100 -100 -100 10 10 10 -1 -1 -1 10 10 10 -100 -100 -100 -1 -1 -1</utilities>
		</utility>
	</nodes>
	<extensions>
		<genie version="1.0" app="GeNIe This network was created in GeNIe Academic, which can be used for academic teaching and research purposes only" name="Network1">
			<node id="S1">
				<name>S1</name>
				<interior color="ffff99" />
				<outline color="000000" />
				<font color="000000" name="Arial" size="10" />
				<position>844 418 916 467</position>
			</node>
			<node id="S3">
				<name>S3</name>
				<interior color="ffff99" />
				<outline color="000000" />
				<font color="000000" name="Arial" size="10" />
				<position>433 418 505 467</position>
			</node>
			<node id="S2">
				<name>S2</name>
				<interior color="ffff99" />
				<outline color="000000" />
				<font color="000000" name="Arial" size="10" />
				<position>638 418 710 467</position>
			</node>
			<node id="O3">
				<name>O3</name>
				<interior color="ccffff" />
				<outline color="000000" />
				<font color="000000" name="Arial" size="10" />
				<position>442 583 497 619</position>
			</node>
			<node id="O2">
				<name>O2</name>
				<interior color="ccffff" />
				<outline color="000000" />
				<font color="000000" name="Arial" size="10" />
				<position>647 583 702 619</position>
			</node>
			<node id="O1">
				<name>O1</name>
				<interior color="ccffff" />
				<outline color="000000" />
				<font color="000000" name="Arial" size="10" />
				<position>853 583 908 619</position>
			</node>
			<node id="D3">
				<name>D3</name>
				<interior color="ff99cc" />
				<outline color="000000" />
				<font color="000000" name="Arial" size="10" />
				<position>538 495 588 531</position>
				<barchart width="128" height="80" />
			</node>
			<node id="D2">
				<name>D2</name>
				<interior color="ff99cc" />
				<outline color="000000" />
				<font color="000000" name="Arial" size="10" />
				<position>744 495 794 531</position>
				<barchart width="128" height="80" />
			</node>
			<node id="D1">
				<name>D1</name>
				<interior color="ff99cc" />
				<outline color="000000" />
				<font color="000000" name="Arial" size="10" />
				<position>948 495 998 531</position>
				<barchart width="128" height="80" />
			</node>
			<node id="U3">
				<name>U3</name>
				<interior color="00ff00" />
				<outline color="000000" />
				<font color="000000" name="Arial" size="10" />
				<position>527 344 593 386</position>
				<barchart width="128" height="80" />
			</node>
			<node id="U2">
				<name>U2</name>
				<interior color="00ff00" />
				<outline color="000000" />
				<font color="000000" name="Arial" size="10" />
				<position>733 344 799 386</position>
			</node>
			<node id="U1">
				<name>U1</name>
				<interior color="00ff00" />
				<outline color="000000" />
				<font color="000000" name="Arial" size="10" />
				<position>940 344 1006 386</position>
			</node>
			<node id="OO2">
				<name>OO2</name>
				<interior color="ccffff" />
				<outline color="ff00ff" />
				<font color="000000" name="Arial" size="10" />
				<position>647 301 702 337</position>
			</node>
			<node id="OO1">
				<name>OO1</name>
				<interior color="ccffff" />
				<outline color="ff00ff" />
				<font color="000000" name="Arial" size="10" />
				<position>853 301 908 337</position>
			</node>
			<node id="OD3">
				<name>OD3</name>
				<interior color="e5f6f7" />
				<outline color="000080" />
				<font color="000000" name="Arial" size="8" />
				<position>531 220 587 258</position>
			</node>
			<node id="OD2">
				<name>OD2</name>
				<interior color="e5f6f7" />
				<outline color="000080" />
				<font color="000000" name="Arial" size="8" />
				<position>737 220 793 258</position>
			</node>
			<node id="OD1">
				<name>OD1</name>
				<interior color="e5f6f7" />
				<outline color="000080" />
				<font color="000000" name="Arial" size="8" />
				<position>944 220 1000 258</position>
			</node>
		</genie>
	</extensions>
</smile>
